<?xml version="1.0"?>
<opencv_storage>
<cascade>
  <stageType>BOOST</stageType>
  <featureType>HAAR</featureType>
  <height>24</height>
  <width>24</width>
  <stageParams>
    <boostType>GAB</boostType>
    <minHitRate>9.9500000476837158e-01</minHitRate>
    <maxFalseAlarm>5.0000000000000000e-01</maxFalseAlarm>
    <weightTrimRate>9.4999998807907104e-01</weightTrimRate>
    <maxDepth>1</maxDepth>
    <maxWeakCount>100</maxWeakCount></stageParams>
  <featureParams>
    <maxCatCount>0</maxCatCount>
    <featSize>1</featSize>
    <mode>BASIC</mode></featureParams>
  <stageNum>8</stageNum>
  <stages>
    <!-- stage 0 -->
    <_>
      <maxWeakCount>2</maxWeakCount>
      <stageThreshold>-4.2649388313293457e-01</stageThreshold>
      <weakClassifiers>
        <_>
          <internalNodes>
            0 -1 12 5.1670704036951065e-02</internalNodes>
          <leafValues>
            -9.8988878726959229e-01 5.6164383888244629e-01</leafValues></_>
        <_>
          <internalNodes>
            0 -1 14 -1.4578321017324924e-02</internalNodes>
          <leafValues>
            5.8559966087341309e-01 -9.8813772201538086e-01</leafValues></_></weakClassifiers></_>
    <!-- stage 1 -->
    <_>
      <maxWeakCount>2</maxWeakCount>
      <stageThreshold>-6.1378139257431030e-01</stageThreshold>
      <weakClassifiers>
        <_>
          <internalNodes>
            0 -1 1 1.5156660974025726e-01</internalNodes>
          <leafValues>
            -9.7607177495956421e-01 6.9491523504257202e-01</leafValues></_>
        <_>
          <internalNodes>
            0 -1 15 -4.5542955398559570e-02</internalNodes>
          <leafValues>
            3.6229038238525391e-01 -9.9726939201354980e-01</leafValues></_></weakClassifiers></_>
    <!-- stage 2 -->
    <_>
      <maxWeakCount>2</maxWeakCount>
      <stageThreshold>-6.9855570793151855e-01</stageThreshold>
      <weakClassifiers>
        <_>
          <internalNodes>
            0 -1 9 -5.5023813247680664e-01</internalNodes>
          <leafValues>
            7.4545454978942871e-01 -9.7219461202621460e-01</leafValues></_>
        <_>
          <internalNodes>
            0 -1 2 1.2036014348268509e-02</internalNodes>
          <leafValues>
            -9.9205809831619263e-01 2.7363893389701843e-01</leafValues></_></weakClassifiers></_>
    <!-- stage 3 -->
    <_>
      <maxWeakCount>3</maxWeakCount>
      <stageThreshold>-1.5085856914520264e+00</stageThreshold>
      <weakClassifiers>
        <_>
          <internalNodes>
            0 -1 5 -2.8720080852508545e-01</internalNodes>
          <leafValues>
            -7.8260868787765503e-02 -9.8099261522293091e-01</leafValues></_>
        <_>
          <internalNodes>
            0 -1 17 -2.0348662510514259e-02</internalNodes>
          <leafValues>
            1.4933243393898010e-01 -9.5856678485870361e-01</leafValues></_>
        <_>
          <internalNodes>
            0 -1 10 2.0438332855701447e-01</internalNodes>
          <leafValues>
            -1. 4.3097364902496338e-01</leafValues></_></weakClassifiers></_>
    <!-- stage 4 -->
    <_>
      <maxWeakCount>2</maxWeakCount>
      <stageThreshold>-1.1432533264160156e+00</stageThreshold>
      <weakClassifiers>
        <_>
          <internalNodes>
            0 -1 3 -1.8402114510536194e-02</internalNodes>
          <leafValues>
            -1.6393442451953888e-01 -9.7659575939178467e-01</leafValues></_>
        <_>
          <internalNodes>
            0 -1 16 -2.3870225995779037e-02</internalNodes>
          <leafValues>
            8.8249772787094116e-02 -9.7931891679763794e-01</leafValues></_></weakClassifiers></_>
    <!-- stage 5 -->
    <_>
      <maxWeakCount>2</maxWeakCount>
      <stageThreshold>-1.2954849004745483e+00</stageThreshold>
      <weakClassifiers>
        <_>
          <internalNodes>
            0 -1 11 2.6858236640691757e-02</internalNodes>
          <leafValues>
            -9.7587716579437256e-01 -3.1999999284744263e-01</leafValues></_>
        <_>
          <internalNodes>
            0 -1 0 9.8201353102922440e-03</internalNodes>
          <leafValues>
            -9.7548484802246094e-01 9.6455231308937073e-02</leafValues></_></weakClassifiers></_>
    <!-- stage 6 -->
    <_>
      <maxWeakCount>3</maxWeakCount>
      <stageThreshold>-1.5151162147521973e+00</stageThreshold>
      <weakClassifiers>
        <_>
          <internalNodes>
            0 -1 4 -3.7384283542633057e-01</internalNodes>
          <leafValues>
            -2.8104576468467712e-01 -9.8459845781326294e-01</leafValues></_>
        <_>
          <internalNodes>
            0 -1 18 -3.7077471613883972e-02</internalNodes>
          <leafValues>
            3.0289179086685181e-01 -8.6828947067260742e-01</leafValues></_>
        <_>
          <internalNodes>
            0 -1 8 -3.9375942945480347e-01</internalNodes>
          <leafValues>
            5.0555139780044556e-01 -8.3340954780578613e-01</leafValues></_></weakClassifiers></_>
    <!-- stage 7 -->
    <_>
      <maxWeakCount>3</maxWeakCount>
      <stageThreshold>-1.4614958763122559e+00</stageThreshold>
      <weakClassifiers>
        <_>
          <internalNodes>
            0 -1 6 -2.7613233774900436e-02</internalNodes>
          <leafValues>
            6.8000000715255737e-01 -9.2092573642730713e-01</leafValues></_>
        <_>
          <internalNodes>
            0 -1 7 2.3381795734167099e-02</internalNodes>
          <leafValues>
            -9.6884930133819580e-01 3.2595565915107727e-01</leafValues></_>
        <_>
          <internalNodes>
            0 -1 13 5.5293729528784752e-03</internalNodes>
          <leafValues>
            -8.6652582883834839e-01 5.5579209327697754e-01</leafValues></_></weakClassifiers></_></stages>
  <features>
    <_>
      <rects>
        <_>
          0 1 8 4 -1.</_>
        <_>
          0 1 4 2 2.</_>
        <_>
          4 3 4 2 2.</_></rects>
      <tilted>0</tilted></_>
    <_>
      <rects>
        <_>
          0 2 24 4 -1.</_>
        <_>
          8 2 8 4 3.</_></rects>
      <tilted>0</tilted></_>
    <_>
      <rects>
        <_>
          0 6 4 5 -1.</_>
        <_>
          2 6 2 5 2.</_></rects>
      <tilted>0</tilted></_>
    <_>
      <rects>
        <_>
          0 16 6 8 -1.</_>
        <_>
          0 16 3 4 2.</_>
        <_>
          3 20 3 4 2.</_></rects>
      <tilted>0</tilted></_>
    <_>
      <rects>
        <_>
          1 4 14 20 -1.</_>
        <_>
          1 14 14 10 2.</_></rects>
      <tilted>0</tilted></_>
    <_>
      <rects>
        <_>
          1 11 22 12 -1.</_>
        <_>
          1 17 22 6 2.</_></rects>
      <tilted>0</tilted></_>
    <_>
      <rects>
        <_>
          1 20 10 4 -1.</_>
        <_>
          1 20 5 2 2.</_>
        <_>
          6 22 5 2 2.</_></rects>
      <tilted>0</tilted></_>
    <_>
      <rects>
        <_>
          2 2 8 3 -1.</_>
        <_>
          6 2 4 3 2.</_></rects>
      <tilted>0</tilted></_>
    <_>
      <rects>
        <_>
          2 3 17 20 -1.</_>
        <_>
          2 13 17 10 2.</_></rects>
      <tilted>0</tilted></_>
    <_>
      <rects>
        <_>
          2 6 21 18 -1.</_>
        <_>
          2 15 21 9 2.</_></rects>
      <tilted>0</tilted></_>
    <_>
      <rects>
        <_>
          3 0 19 15 -1.</_>
        <_>
          3 5 19 5 3.</_></rects>
      <tilted>0</tilted></_>
    <_>
      <rects>
        <_>
          3 2 18 1 -1.</_>
        <_>
          9 2 6 1 3.</_></rects>
      <tilted>0</tilted></_>
    <_>
      <rects>
        <_>
          5 0 13 4 -1.</_>
        <_>
          5 2 13 2 2.</_></rects>
      <tilted>0</tilted></_>
    <_>
      <rects>
        <_>
          11 22 12 2 -1.</_>
        <_>
          11 22 6 1 2.</_>
        <_>
          17 23 6 1 2.</_></rects>
      <tilted>0</tilted></_>
    <_>
      <rects>
        <_>
          13 20 5 4 -1.</_>
        <_>
          13 22 5 2 2.</_></rects>
      <tilted>0</tilted></_>
    <_>
      <rects>
        <_>
          16 2 8 7 -1.</_>
        <_>
          20 2 4 7 2.</_></rects>
      <tilted>0</tilted></_>
    <_>
      <rects>
        <_>
          16 16 6 6 -1.</_>
        <_>
          16 19 6 3 2.</_></rects>
      <tilted>0</tilted></_>
    <_>
      <rects>
        <_>
          19 14 3 8 -1.</_>
        <_>
          19 18 3 4 2.</_></rects>
      <tilted>0</tilted></_>
    <_>
      <rects>
        <_>
          20 6 4 12 -1.</_>
        <_>
          22 6 2 12 2.</_></rects>
      <tilted>0</tilted></_></features></cascade>
</opencv_storage>
